<?xml version="1.0"?>
<opencv_storage>
<cascade>
  <stageType>BOOST</stageType>
  <featureType>HAAR</featureType>
  <height>30</height>
  <width>50</width>
  <stageParams>
    <boostType>GAB</boostType>
    <minHitRate>9.9500000476837158e-01</minHitRate>
    <maxFalseAlarm>5.0000000000000000e-01</maxFalseAlarm>
    <weightTrimRate>9.4999999999999996e-01</weightTrimRate>
    <maxDepth>1</maxDepth>
    <maxWeakCount>100</maxWeakCount></stageParams>
  <featureParams>
    <maxCatCount>0</maxCatCount>
    <featSize>1</featSize>
    <mode>BASIC</mode></featureParams>
  <stageNum>22</stageNum>
  <stages>
    <!-- stage 0 -->
    <_>
      <maxWeakCount>8</maxWeakCount>
      <stageThreshold>-1.0750981569290161e+00</stageThreshold>
      <weakClassifiers>
        <_>
          <internalNodes>
            0 -1 383 1.4215853996574879e-02</internalNodes>
          <leafValues>
            -5.7723575830459595e-01 9.0626901388168335e-01</leafValues></_>
        <_>
          <internalNodes>
            0 -1 431 -1.1803323403000832e-02</internalNodes>
          <leafValues>
            7.1505129337310791e-01 -3.6286145448684692e-01</leafValues></_>
        <_>
          <internalNodes>
            0 -1 363 -1.5580596402287483e-02</internalNodes>
          <leafValues>
            5.3331506252288818e-01 -4.3285715579986572e-01</leafValues></_>
        <_>
          <internalNodes>
            0 -1 237 6.4670583233237267e-03</internalNodes>
          <leafValues>
            -2.3153206706047058e-01 6.7884296178817749e-01</leafValues></_>
        <_>
          <internalNodes>
            0 -1 582 7.3630809783935547e-03</internalNodes>
          <leafValues>
            -2.3324057459831238e-01 6.3625270128250122e-01</leafValues></_>
        <_>
          <internalNodes>
            0 -1 293 -7.5294077396392822e-03</internalNodes>
          <leafValues>
            7.9288339614868164e-01 -1.1967856436967850e-01</leafValues></_>
        <_>
          <internalNodes>
            0 -1 486 -9.3999467790126801e-03</internalNodes>
          <leafValues>
            6.9209945201873779e-01 -1.8404379487037659e-01</leafValues></_>
        <_>
          <internalNodes>
            0 -1 607 2.1289072465151548e-03</internalNodes>
          <leafValues>
            1.9685791432857513e-01 -6.9102060794830322e-01</leafValues></_></weakClassifiers></_>
    <!-- stage 1 -->
    <_>
      <maxWeakCount>10</maxWeakCount>
      <stageThreshold>-1.4037449359893799e+00</stageThreshold>
      <weakClassifiers>
        <_>
          <internalNodes>
            0 -1 357 3.2452568411827087e-02</internalNodes>
          <leafValues>
            -5.2141529321670532e-01 8.3121830224990845e-01</leafValues></_>
        <_>
          <internalNodes>
            0 -1 154 9.6353087574243546e-03</internalNodes>
          <leafValues>
            -3.9504703879356384e-01 6.8375223875045776e-01</leafValues></_>
        <_>
          <internalNodes>
            0 -1 228 1.0364704579114914e-01</internalNodes>
          <leafValues>
            -2.5465041399002075e-01 5.0216412544250488e-01</leafValues></_>
        <_>
          <internalNodes>
            0 -1 482 8.9596603065729141e-03</internalNodes>
          <leafValues>
            -2.2905813157558441e-01 5.9976673126220703e-01</leafValues></_>
        <_>
          <internalNodes>
            0 -1 334 7.7446264913305640e-04</internalNodes>
          <leafValues>
            -2.3714597523212433e-01 4.8788595199584961e-01</leafValues></_>
        <_>
          <internalNodes>
            0 -1 575 1.9542733207345009e-03</internalNodes>
          <leafValues>
            1.7383357882499695e-01 -6.7474991083145142e-01</leafValues></_>
        <_>
          <internalNodes>
            0 -1 430 1.0888584802160040e-04</internalNodes>
          <leafValues>
            -3.8881292939186096e-01 2.4644216895103455e-01</leafValues></_>
        <_>
          <internalNodes>
            0 -1 605 2.1724616817664355e-04</internalNodes>
          <leafValues>
            2.2193133831024170e-01 -4.6770697832107544e-01</leafValues></_>
        <_>
          <internalNodes>
            0 -1 54 8.2250423729419708e-03</internalNodes>
          <leafValues>
            -2.5686523318290710e-01 3.5854870080947876e-01</leafValues></_>
        <_>
          <internalNodes>
            0 -1 631 1.4148553600534797e-04</internalNodes>
          <leafValues>
            1.7418518662452698e-01 -5.4093092679977417e-01</leafValues></_></weakClassifiers></_>
    <!-- stage 2 -->
    <_>
      <maxWeakCount>12</maxWeakCount>
      <stageThreshold>-1.3205971717834473e+00</stageThreshold>
      <weakClassifiers>
        <_>
          <internalNodes>
            0 -1 81 2.2093445062637329e-02</internalNodes>
          <leafValues>
            -4.8902195692062378e-01 7.5242716073989868e-01</leafValues></_>
        <_>
          <internalNodes>
            0 -1 383 2.4868791922926903e-02</internalNodes>
          <leafValues>
            -3.5821318626403809e-01 7.2001063823699951e-01</leafValues></_>
        <_>
          <internalNodes>
            0 -1 512 2.9347593226702884e-05</internalNodes>
          <leafValues>
            2.6745527982711792e-01 -5.6182157993316650e-01</leafValues></_>
        <_>
          <internalNodes>
            0 -1 279 -1.0053014382719994e-02</internalNodes>
          <leafValues>
            6.7266952991485596e-01 -1.5622372925281525e-01</leafValues></_>
        <_>
          <internalNodes>
            0 -1 265 4.9706064164638519e-02</internalNodes>
          <leafValues>
            -1.8261764943599701e-01 6.8658429384231567e-01</leafValues></_>
        <_>
          <internalNodes>
            0 -1 96 -2.3091756156645715e-04</internalNodes>
          <leafValues>
            -6.8424439430236816e-01 1.5906733274459839e-01</leafValues></_>
        <_>
          <internalNodes>
            0 -1 586 -1.1570590140763670e-04</internalNodes>
          <leafValues>
            -4.5632407069206238e-01 1.9709163904190063e-01</leafValues></_>
        <_>
          <internalNodes>
            0 -1 427 2.4657540052430704e-05</internalNodes>
          <leafValues>
            -4.2390072345733643e-01 2.1253745257854462e-01</leafValues></_>
        <_>
          <internalNodes>
            0 -1 602 -2.1192216081544757e-04</internalNodes>
          <leafValues>
            -5.1294976472854614e-01 1.5948274731636047e-01</leafValues></_>
        <_>
          <internalNodes>
            0 -1 606 4.0932110277935863e-04</internalNodes>
          <leafValues>
            1.4790579676628113e-01 -5.1518672704696655e-01</leafValues></_>
        <_>
          <internalNodes>
            0 -1 87 2.2622760385274887e-02</internalNodes>
          <leafValues>
            -4.0303477644920349e-01 1.7962065339088440e-01</leafValues></_>
        <_>
          <internalNodes>
            0 -1 30 9.0659295892692171e-06</internalNodes>
          <leafValues>
            -2.7851301431655884e-01 3.0064865946769714e-01</leafValues></_></weakClassifiers></_>
    <!-- stage 3 -->
    <_>
      <maxWeakCount>15</maxWeakCount>
      <stageThreshold>-1.0675220489501953e+00</stageThreshold>
      <weakClassifiers>
        <_>
          <internalNodes>
            0 -1 449 7.4657439254224300e-03</internalNodes>
          <leafValues>
            -3.5478681325912476e-01 8.4648185968399048e-01</leafValues></_>
        <_>
          <internalNodes>
            0 -1 80 3.8655936717987061e-02</internalNodes>
          <leafValues>
            -4.2405429482460022e-01 5.3124648332595825e-01</leafValues></_>
        <_>
          <internalNodes>
            0 -1 287 2.5107834488153458e-02</internalNodes>
          <leafValues>
            -1.4401178061962128e-01 8.3023959398269653e-01</leafValues></_>
        <_>
          <internalNodes>
            0 -1 341 -1.0310303419828415e-02</internalNodes>
          <leafValues>
            7.9100626707077026e-01 -1.5728615224361420e-01</leafValues></_>
        <_>
          <internalNodes>
            0 -1 376 -1.2291432358324528e-04</internalNodes>
          <leafValues>
            -5.9320169687271118e-01 1.8876463174819946e-01</leafValues></_>
        <_>
          <internalNodes>
            0 -1 466 -4.3241190724074841e-04</internalNodes>
          <leafValues>
            3.8555464148521423e-01 -2.4138748645782471e-01</leafValues></_>
        <_>
          <internalNodes>
            0 -1 542 -2.5469997897744179e-02</internalNodes>
          <leafValues>
            6.6203212738037109e-01 -1.7801743745803833e-01</leafValues></_>
        <_>
          <internalNodes>
            0 -1 55 7.1176905184984207e-03</internalNodes>
          <leafValues>
            -2.7416452765464783e-01 3.2192635536193848e-01</leafValues></_>
        <_>
          <internalNodes>
            0 -1 610 -2.9194582020863891e-04</internalNodes>
          <leafValues>
            -6.8397760391235352e-01 1.5152888000011444e-01</leafValues></_>
        <_>
          <internalNodes>
            0 -1 483 -4.4122075451014098e-06</internalNodes>
          <leafValues>
            2.2858732938766479e-01 -3.2532593607902527e-01</leafValues></_>
        <_>
          <internalNodes>
            0 -1 474 1.1983681179117411e-04</internalNodes>
          <leafValues>
            1.3055080175399780e-01 -5.4878103733062744e-01</leafValues></_>
        <_>
          <internalNodes>
            0 -1 511 9.8739918321371078e-03</internalNodes>
          <leafValues>
            -1.2673740088939667e-01 5.8649557828903198e-01</leafValues></_>
        <_>
          <internalNodes>
            0 -1 349 1.1547154281288385e-03</internalNodes>
          <leafValues>
            -2.2280628979206085e-01 3.3078953623771667e-01</leafValues></_>
        <_>
          <internalNodes>
            0 -1 589 -4.0689567686058581e-04</internalNodes>
          <leafValues>
            -4.0571761131286621e-01 1.7555692791938782e-01</leafValues></_>
        <_>
          <internalNodes>
            0 -1 565 3.7434411933645606e-04</internalNodes>
          <leafValues>
            1.6592523455619812e-01 -4.1645643115043640e-01</leafValues></_></weakClassifiers></_>
    <!-- stage 4 -->
    <_>
      <maxWeakCount>14</maxWeakCount>
      <stageThreshold>-1.1283556222915649e+00</stageThreshold>
      <weakClassifiers>
        <_>
          <internalNodes>
            0 -1 381 4.0397785604000092e-02</internalNodes>
          <leafValues>
            -2.8985506296157837e-01 7.8835225105285645e-01</leafValues></_>
        <_>
          <internalNodes>
            0 -1 420 2.6072628796100616e-02</internalNodes>
          <leafValues>
            -1.0380724072456360e-01 9.0749716758728027e-01</leafValues></_>
        <_>
          <internalNodes>
            0 -1 235 3.5496212542057037e-02</internalNodes>
          <leafValues>
            -9.6799828112125397e-02 7.8367507457733154e-01</leafValues></_>
        <_>
          <internalNodes>
            0 -1 313 -9.4763375818729401e-03</internalNodes>
          <leafValues>
            6.5448164939880371e-01 -1.7063966393470764e-01</leafValues></_>
        <_>
          <internalNodes>
            0 -1 282 -5.0190259935334325e-04</internalNodes>
          <leafValues>
            -6.6002035140991211e-01 1.6510681807994843e-01</leafValues></_>
        <_>
          <internalNodes>
            0 -1 532 1.1919918470084667e-03</internalNodes>
          <leafValues>
            9.5480799674987793e-02 -8.7658059597015381e-01</leafValues></_>
        <_>
          <internalNodes>
            0 -1 498 -1.9066262757405639e-03</internalNodes>
          <leafValues>
            1.6919843852519989e-01 -4.9961966276168823e-01</leafValues></_>
        <_>
          <internalNodes>
            0 -1 331 -1.3825768837705255e-04</internalNodes>
          <leafValues>
            -7.5948899984359741e-01 1.1738145351409912e-01</leafValues></_>
        <_>
          <internalNodes>
            0 -1 100 -1.8471290240995586e-04</internalNodes>
          <leafValues>
            -5.5611312389373779e-01 1.2612704932689667e-01</leafValues></_>
        <_>
          <internalNodes>
            0 -1 619 6.3288607634603977e-04</internalNodes>
          <leafValues>
            1.4022263884544373e-01 -6.1896878480911255e-01</leafValues></_>
        <_>
          <internalNodes>
            0 -1 497 -1.9550013821572065e-03</internalNodes>
          <leafValues>
            -7.3141592741012573e-01 9.1660507023334503e-02</leafValues></_>
        <_>
          <internalNodes>
            0 -1 485 -1.1868334840983152e-03</internalNodes>
          <leafValues>
            3.4409254789352417e-01 -2.1532762050628662e-01</leafValues></_>
        <_>
          <internalNodes>
            0 -1 275 1.2997994199395180e-02</internalNodes>
          <leafValues>
            -1.8631529808044434e-01 5.4793429374694824e-01</leafValues></_>
        <_>
          <internalNodes>
            0 -1 240 -4.8529416322708130e-02</internalNodes>
          <leafValues>
            2.9768466949462891e-01 -2.8854840993881226e-01</leafValues></_></weakClassifiers></_>
    <!-- stage 5 -->
    <_>
      <maxWeakCount>20</maxWeakCount>
      <stageThreshold>-1.1402161121368408e+00</stageThreshold>
      <weakClassifiers>
        <_>
          <internalNodes>
            0 -1 384 1.4812584966421127e-02</internalNodes>
          <leafValues>
            -3.7659963965415955e-01 7.4678665399551392e-01</leafValues></_>
        <_>
          <internalNodes>
            0 -1 450 2.5521805509924889e-02</internalNodes>
          <leafValues>
            -1.0334092378616333e-01 8.1390666961669922e-01</leafValues></_>
        <_>
          <internalNodes>
            0 -1 407 3.1933486461639404e-03</internalNodes>
          <leafValues>
            -1.3089640438556671e-01 5.8798950910568237e-01</leafValues></_>
        <_>
          <internalNodes>
            0 -1 491 9.6439840272068977e-03</internalNodes>
          <leafValues>
            -2.5102159380912781e-01 3.8351696729660034e-01</leafValues></_>
        <_>
          <internalNodes>
            0 -1 62 3.5365495830774307e-02</internalNodes>
          <leafValues>
            -3.6620628833770752e-01 1.7210203409194946e-01</leafValues></_>
        <_>
          <internalNodes>
            0 -1 394 4.0237773646367714e-06</internalNodes>
          <leafValues>
            -2.7892234921455383e-01 2.5586998462677002e-01</leafValues></_>
        <_>
          <internalNodes>
            0 -1 375 6.0332837165333331e-05</internalNodes>
          <leafValues>
            2.0174914598464966e-01 -3.5117018222808838e-01</leafValues></_>
        <_>
          <internalNodes>
            0 -1 295 -1.0805046185851097e-03</internalNodes>
          <leafValues>
            3.5345813632011414e-01 -2.1427255868911743e-01</leafValues></_>
        <_>
          <internalNodes>
            0 -1 101 1.0447197128087282e-03</internalNodes>
          <leafValues>
            1.3220821321010590e-01 -5.1036280393600464e-01</leafValues></_>
        <_>
          <internalNodes>
            0 -1 390 1.0994944721460342e-02</internalNodes>
          <leafValues>
            -1.1480233818292618e-01 5.9775048494338989e-01</leafValues></_>
        <_>
          <internalNodes>
            0 -1 345 4.8151402734220028e-03</internalNodes>
          <leafValues>
            -7.9115703701972961e-02 8.3362531661987305e-01</leafValues></_>
        <_>
          <internalNodes>
            0 -1 355 2.9403867665678263e-04</internalNodes>
          <leafValues>
            1.5062506496906281e-01 -5.1444095373153687e-01</leafValues></_>
        <_>
          <internalNodes>
            0 -1 494 -7.9825473949313164e-03</internalNodes>
          <leafValues>
            -5.1748633384704590e-01 1.4021269977092743e-01</leafValues></_>
        <_>
          <internalNodes>
            0 -1 545 2.2937373723834753e-03</internalNodes>
          <leafValues>
            1.4555999636650085e-01 -4.1025128960609436e-01</leafValues></_>
        <_>
          <internalNodes>
            0 -1 463 4.0773207729216665e-05</internalNodes>
          <leafValues>
            1.3020992279052734e-01 -4.4394314289093018e-01</leafValues></_>
        <_>
          <internalNodes>
            0 -1 421 8.4568472811952233e-04</internalNodes>
          <leafValues>
            -1.3417612016201019e-01 5.7669585943222046e-01</leafValues></_>
        <_>
          <internalNodes>
            0 -1 465 -2.0318799215601757e-05</internalNodes>
          <leafValues>
            -4.4064530730247498e-01 1.6699896752834320e-01</leafValues></_>
        <_>
          <internalNodes>
            0 -1 227 2.3170779459178448e-03</internalNodes>
          <leafValues>
            1.3353528082370758e-01 -4.6436998248100281e-01</leafValues></_>
        <_>
          <internalNodes>
            0 -1 169 -8.6955074220895767e-04</internalNodes>
          <leafValues>
            5.2029711008071899e-01 -1.2895862758159637e-01</leafValues></_>
        <_>
          <internalNodes>
            0 -1 244 -8.3595851901918650e-04</internalNodes>
          <leafValues>
            5.7022863626480103e-01 -1.0340593010187149e-01</leafValues></_></weakClassifiers></_>
    <!-- stage 6 -->
    <_>
      <maxWeakCount>18</maxWeakCount>
      <stageThreshold>-1.2161426544189453e+00</stageThreshold>
      <weakClassifiers>
        <_>
          <internalNodes>
            0 -1 446 4.1385497897863388e-03</internalNodes>
          <leafValues>
            -5.0283765792846680e-01 6.7439228296279907e-01</leafValues></_>
        <_>
          <internalNodes>
            0 -1 448 5.8677275665104389e-03</internalNodes>
          <leafValues>
            -2.0276761054992676e-01 6.8101012706756592e-01</leafValues></_>
        <_>
          <internalNodes>
            0 -1 44 1.4931883662939072e-02</internalNodes>
          <leafValues>
            -3.3960792422294617e-01 3.2141381502151489e-01</leafValues></_>
        <_>
          <internalNodes>
            0 -1 547 -2.0607891492545605e-03</internalNodes>
          <leafValues>
            2.8261840343475342e-01 -3.2798343896865845e-01</leafValues></_>
        <_>
          <internalNodes>
            0 -1 307 3.0382783152163029e-03</internalNodes>
          <leafValues>
            -1.7563597857952118e-01 4.4887018203735352e-01</leafValues></_>
        <_>
          <internalNodes>
            0 -1 530 1.1024575214833021e-03</internalNodes>
          <leafValues>
            1.1506577581167221e-01 -4.8733812570571899e-01</leafValues></_>
        <_>
          <internalNodes>
            0 -1 470 7.7974909800104797e-05</internalNodes>
          <leafValues>
            -2.8863421082496643e-01 2.1290899813175201e-01</leafValues></_>
        <_>
          <internalNodes>
            0 -1 526 -7.1711570490151644e-04</internalNodes>
          <leafValues>
            -7.3677015304565430e-01 7.1962438523769379e-02</leafValues></_>
        <_>
          <internalNodes>
            0 -1 447 -5.1330984570086002e-04</internalNodes>
          <leafValues>
            4.7883975505828857e-01 -1.4111632108688354e-01</leafValues></_>
        <_>
          <internalNodes>
            0 -1 435 -9.2293188208714128e-04</internalNodes>
          <leafValues>
            3.1620872020721436e-01 -2.5292745232582092e-01</leafValues></_>
        <_>
          <internalNodes>
            0 -1 561 -3.5642083734273911e-02</internalNodes>
          <leafValues>
            4.8071330785751343e-01 -1.1791037023067474e-01</leafValues></_>
        <_>
          <internalNodes>
            0 -1 141 -1.3390460517257452e-03</internalNodes>
          <leafValues>
            3.9621195197105408e-01 -1.4191716909408569e-01</leafValues></_>
        <_>
          <internalNodes>
            0 -1 434 4.4122075451014098e-06</internalNodes>
          <leafValues>
            -3.1088849902153015e-01 1.8023960292339325e-01</leafValues></_>
        <_>
          <internalNodes>
            0 -1 502 -7.6053396333009005e-04</internalNodes>
          <leafValues>
            -5.6577616930007935e-01 1.0252289474010468e-01</leafValues></_>
        <_>
          <internalNodes>
            0 -1 347 -9.3740185548085719e-05</internalNodes>
          <leafValues>
            -4.2959251999855042e-01 1.3412101566791534e-01</leafValues></_>
        <_>
          <internalNodes>
            0 -1 362 9.0491995215415955e-03</internalNodes>
          <leafValues>
            -9.9836707115173340e-02 7.6183509826660156e-01</leafValues></_>
        <_>
          <internalNodes>
            0 -1 368 -2.6278542354702950e-03</internalNodes>
          <leafValues>
            5.3732848167419434e-01 -1.3044707477092743e-01</leafValues></_>
        <_>
          <internalNodes>
            0 -1 508 -9.2120390036143363e-06</internalNodes>
          <leafValues>
            2.5583589076995850e-01 -3.2859036326408386e-01</leafValues></_></weakClassifiers></_>
    <!-- stage 7 -->
    <_>
      <maxWeakCount>18</maxWeakCount>
      <stageThreshold>-1.1785132884979248e+00</stageThreshold>
      <weakClassifiers>
        <_>
          <internalNodes>
            0 -1 383 3.4997835755348206e-02</internalNodes>
          <leafValues>
            -1.6666667163372040e-01 8.0851066112518311e-01</leafValues></_>
        <_>
          <internalNodes>
            0 -1 292 1.4965317677706480e-03</internalNodes>
          <leafValues>
            -2.4981822073459625e-01 5.9227377176284790e-01</leafValues></_>
        <_>
          <internalNodes>
            0 -1 50 4.3450325727462769e-02</internalNodes>
          <leafValues>
            -4.2804506421089172e-01 3.1565433740615845e-01</leafValues></_>
        <_>
          <internalNodes>
            0 -1 468 2.1009026095271111e-03</internalNodes>
          <leafValues>
            -2.1353447437286377e-01 4.3350559473037720e-01</leafValues></_>
        <_>
          <internalNodes>
            0 -1 504 -6.8735948298126459e-04</internalNodes>
          <leafValues>
            4.5913529396057129e-01 -2.1294772624969482e-01</leafValues></_>
        <_>
          <internalNodes>
            0 -1 199 -9.4794947654008865e-03</internalNodes>
          <leafValues>
            2.5804588198661804e-01 -4.1934558749198914e-01</leafValues></_>
        <_>
          <internalNodes>
            0 -1 305 -2.2235973738133907e-03</internalNodes>
          <leafValues>
            4.3263000249862671e-01 -2.1175678074359894e-01</leafValues></_>
        <_>
          <internalNodes>
            0 -1 180 -8.0248608719557524e-04</internalNodes>
          <leafValues>
            7.3532199859619141e-01 -9.5763139426708221e-02</leafValues></_>
        <_>
          <internalNodes>
            0 -1 170 -4.5043916907161474e-04</internalNodes>
          <leafValues>
            4.6146732568740845e-01 -1.3024953007698059e-01</leafValues></_>
        <_>
          <internalNodes>
            0 -1 493 -1.2266659177839756e-04</internalNodes>
          <leafValues>
            2.2187907993793488e-01 -3.0645340681076050e-01</leafValues></_>
        <_>
          <internalNodes>
            0 -1 179 -1.3829849194735289e-03</internalNodes>
          <leafValues>
            5.5412745475769043e-01 -1.2839069962501526e-01</leafValues></_>
        <_>
          <internalNodes>
            0 -1 10 -5.5466528283432126e-04</internalNodes>
          <leafValues>
            -4.3837574124336243e-01 1.7723812162876129e-01</leafValues></_>
        <_>
          <internalNodes>
            0 -1 112 8.0249756574630737e-03</internalNodes>
          <leafValues>
            -2.1943327784538269e-01 2.7660942077636719e-01</leafValues></_>
        <_>
          <internalNodes>
            0 -1 304 3.2851856201887131e-02</internalNodes>
          <leafValues>
            -7.8892193734645844e-02 6.2414586544036865e-01</leafValues></_>
        <_>
          <internalNodes>
            0 -1 570 9.6331874374300241e-04</internalNodes>
          <leafValues>
            -2.1833999454975128e-01 3.4010773897171021e-01</leafValues></_>
        <_>
          <internalNodes>
            0 -1 247 3.0766319832764566e-04</internalNodes>
          <leafValues>
            -8.3290718495845795e-02 6.3052535057067871e-01</leafValues></_>
        <_>
          <internalNodes>
            0 -1 411 1.0931382887065411e-02</internalNodes>
          <leafValues>
            1.2482109665870667e-01 -5.0414657592773438e-01</leafValues></_>
        <_>
          <internalNodes>
            0 -1 437 6.2760077416896820e-03</internalNodes>
          <leafValues>
            -2.0052435994148254e-01 2.6391071081161499e-01</leafValues></_></weakClassifiers></_>
    <!-- stage 8 -->
    <_>
      <maxWeakCount>29</maxWeakCount>
      <stageThreshold>-1.0534834861755371e+00</stageThreshold>
      <weakClassifiers>
        <_>
          <internalNodes>
            0 -1 57 2.5709811598062515e-02</internalNodes>
          <leafValues>
            -9.6817873418331146e-02 7.6129579544067383e-01</leafValues></_>
        <_>
          <internalNodes>
            0 -1 409 1.2495749397203326e-03</internalNodes>
          <leafValues>
            -2.6601999998092651e-01 4.2526993155479431e-01</leafValues></_>
        <_>
          <internalNodes>
            0 -1 129 1.0683563351631165e-01</internalNodes>
          <leafValues>
            -3.3245781064033508e-01 2.7381587028503418e-01</leafValues></_>
        <_>
          <internalNodes>
            0 -1 340 -1.1730326339602470e-02</internalNodes>
          <leafValues>
            7.4516552686691284e-01 -1.0974738746881485e-01</leafValues></_>
        <_>
          <internalNodes>
            0 -1 236 6.2717914581298828e-02</internalNodes>
          <leafValues>
            -1.0557745397090912e-01 7.7429646253585815e-01</leafValues></_>
        <_>
          <internalNodes>
            0 -1 71 1.0510525899007916e-03</internalNodes>
          <leafValues>
            -2.4578580260276794e-01 2.3546634614467621e-01</leafValues></_>
        <_>
          <internalNodes>
            0 -1 245 -1.3374586123973131e-03</internalNodes>
          <leafValues>
            7.4527883529663086e-01 -7.5210154056549072e-02</leafValues></_>
        <_>
          <internalNodes>
            0 -1 559 2.9017773922532797e-03</internalNodes>
          <leafValues>
            -1.3000766932964325e-01 3.9627537131309509e-01</leafValues></_>
        <_>
          <internalNodes>
            0 -1 135 -7.4318889528512955e-04</internalNodes>
          <leafValues>
            2.6380139589309692e-01 -1.8315714597702026e-01</leafValues></_>
        <_>
          <internalNodes>
            0 -1 395 1.2934292317368090e-04</internalNodes>
          <leafValues>
            -2.8373658657073975e-01 1.8241597712039948e-01</leafValues></_>
        <_>
          <internalNodes>
            0 -1 546 -5.0043631345033646e-03</internalNodes>
          <leafValues>
            1.7863473296165466e-01 -2.7427980303764343e-01</leafValues></_>
        <_>
          <internalNodes>
            0 -1 555 -1.6501315403729677e-03</internalNodes>
          <leafValues>
            -4.2141595482826233e-01 1.1710704863071442e-01</leafValues></_>
        <_>
          <internalNodes>
            0 -1 433 -3.5753670090343803e-05</internalNodes>
          <leafValues>
            -4.0801009535789490e-01 1.1658608913421631e-01</leafValues></_>
        <_>
          <internalNodes>
            0 -1 119 3.5520286764949560e-03</internalNodes>
          <leafValues>
            -1.1403919011354446e-01 3.9037215709686279e-01</leafValues></_>
        <_>
          <internalNodes>
            0 -1 127 1.0557726636761799e-04</internalNodes>
          <leafValues>
            1.3499568402767181e-01 -3.4117192029953003e-01</leafValues></_>
        <_>
          <internalNodes>
            0 -1 174 -2.2853366099298000e-03</internalNodes>
          <leafValues>
            3.4635859727859497e-01 -1.3718093931674957e-01</leafValues></_>
        <_>
          <internalNodes>
            0 -1 83 -7.2138349059969187e-04</internalNodes>
          <leafValues>
            -3.4341582655906677e-01 1.3464929163455963e-01</leafValues></_>
        <_>
          <internalNodes>
            0 -1 118 -1.7041872488334775e-03</internalNodes>
          <leafValues>
            2.8141719102859497e-01 -1.9157420098781586e-01</leafValues></_>
        <_>
          <internalNodes>
            0 -1 196 -2.9480131343007088e-03</internalNodes>
          <leafValues>
            3.4978052973747253e-01 -1.5340214967727661e-01</leafValues></_>
        <_>
          <internalNodes>
            0 -1 111 1.0822931304574013e-02</internalNodes>
          <leafValues>
            -2.4482856690883636e-01 1.8737556040287018e-01</leafValues></_>
        <_>
          <internalNodes>
            0 -1 422 3.1771729700267315e-03</internalNodes>
          <leafValues>
            -7.7124051749706268e-02 5.7793349027633667e-01</leafValues></_>
        <_>
          <internalNodes>
            0 -1 505 -4.2241247138008475e-04</internalNodes>
          <leafValues>
            3.0789843201637268e-01 -1.5881751477718353e-01</leafValues></_>
        <_>
          <internalNodes>
            0 -1 138 -1.6760403523221612e-03</internalNodes>
          <leafValues>
            5.9790939092636108e-01 -6.6987395286560059e-02</leafValues></_>
        <_>
          <internalNodes>
            0 -1 3 -1.6444288194179535e-03</internalNodes>
          <leafValues>
            -3.5242930054664612e-01 1.2323863059282303e-01</leafValues></_>
        <_>
          <internalNodes>
            0 -1 346 -2.7214942747377791e-05</internalNodes>
          <leafValues>
            -3.0713120102882385e-01 1.4185088872909546e-01</leafValues></_>
        <_>
          <internalNodes>
            0 -1 488 -2.6589845219859853e-05</internalNodes>
          <leafValues>
            -3.2608523964881897e-01 1.3905209302902222e-01</leafValues></_>
        <_>
          <internalNodes>
            0 -1 330 6.2954588793218136e-04</internalNodes>
          <leafValues>
            -1.8362489342689514e-01 2.4764381349086761e-01</leafValues></_>
        <_>
          <internalNodes>
            0 -1 385 5.1830937154591084e-03</internalNodes>
          <leafValues>
            -1.7488393187522888e-01 2.6278370618820190e-01</leafValues></_>
        <_>
          <internalNodes>
            0 -1 309 -5.9435904026031494e-02</internalNodes>
          <leafValues>
            -4.9526718258857727e-01 9.8097786307334900e-02</leafValues></_></weakClassifiers></_>
    <!-- stage 9 -->
    <_>
      <maxWeakCount>25</maxWeakCount>
      <stageThreshold>-1.0135515928268433e+00</stageThreshold>
      <weakClassifiers>
        <_>
          <internalNodes>
            0 -1 477 7.1867001242935658e-03</internalNodes>
          <leafValues>
            1.8214936135336757e-03 7.4476569890975952e-01</leafValues></_>
        <_>
          <internalNodes>
            0 -1 325 -1.0672960430383682e-02</internalNodes>
          <leafValues>
            2.6251244544982910e-01 -3.7949118018150330e-01</leafValues></_>
        <_>
          <internalNodes>
            0 -1 404 -4.4712622184306383e-05</internalNodes>
          <leafValues>
            -4.8608118295669556e-01 1.5831817686557770e-01</leafValues></_>
        <_>
          <internalNodes>
            0 -1 465 -6.5715692471712828e-05</internalNodes>
          <leafValues>
            -5.9629946947097778e-01 1.2985092401504517e-01</leafValues></_>
        <_>
          <internalNodes>
            0 -1 342 -5.0490116700530052e-03</internalNodes>
          <leafValues>
            5.1271206140518188e-01 -1.4078669250011444e-01</leafValues></_>
        <_>
          <internalNodes>
            0 -1 249 2.2349961102008820e-02</internalNodes>
          <leafValues>
            -1.3200017809867859e-01 7.7717280387878418e-01</leafValues></_>
        <_>
          <internalNodes>
            0 -1 403 4.4191649067215621e-05</internalNodes>
          <leafValues>
            2.2997793555259705e-01 -3.3176147937774658e-01</leafValues></_>
        <_>
          <internalNodes>
            0 -1 433 -7.1050613769330084e-05</internalNodes>
          <leafValues>
            -5.5421227216720581e-01 1.5477326512336731e-01</leafValues></_>
        <_>
          <internalNodes>
            0 -1 386 1.8957824795506895e-04</internalNodes>
          <leafValues>
            1.6333320736885071e-01 -3.8870024681091309e-01</leafValues></_>
        <_>
          <internalNodes>
            0 -1 367 1.7927875742316246e-03</internalNodes>
          <leafValues>
            -1.2108740210533142e-01 4.2533969879150391e-01</leafValues></_>
        <_>
          <internalNodes>
            0 -1 444 5.7830247096717358e-03</internalNodes>
          <leafValues>
            1.1605709046125412e-01 -4.4477242231369019e-01</leafValues></_>
        <_>
          <internalNodes>
            0 -1 352 1.2196386232972145e-02</internalNodes>
          <leafValues>
            -6.9440446794033051e-02 7.0619976520538330e-01</leafValues></_>
        <_>
          <internalNodes>
            0 -1 510 -5.9401394537417218e-05</internalNodes>
          <leafValues>
            -3.6235383152961731e-01 1.5873993933200836e-01</leafValues></_>
        <_>
          <internalNodes>
            0 -1 151 1.2311388272792101e-03</internalNodes>
          <leafValues>
            -1.0202037543058395e-01 6.5094512701034546e-01</leafValues></_>
        <_>
          <internalNodes>
            0 -1 64 7.8482246026396751e-03</internalNodes>
          <leafValues>
            -1.8531386554241180e-01 2.6984336972236633e-01</leafValues></_>
        <_>
          <internalNodes>
            0 -1 382 -6.2535516917705536e-04</internalNodes>
          <leafValues>
            -4.1061556339263916e-01 1.2897489964962006e-01</leafValues></_>
        <_>
          <internalNodes>
            0 -1 198 1.6552559100091457e-03</internalNodes>
          <leafValues>
            -7.0589818060398102e-02 6.9100314378738403e-01</leafValues></_>
        <_>
          <internalNodes>
            0 -1 348 5.9464894235134125e-02</internalNodes>
          <leafValues>
            -1.0899383574724197e-01 4.4072133302688599e-01</leafValues></_>
        <_>
          <internalNodes>
            0 -1 432 3.4643857361515984e-05</internalNodes>
          <leafValues>
            1.7144376039505005e-01 -2.9465869069099426e-01</leafValues></_>
        <_>
          <internalNodes>
            0 -1 354 3.7980382330715656e-05</internalNodes>
          <leafValues>
            1.4843714237213135e-01 -3.0913123488426208e-01</leafValues></_>
        <_>
          <internalNodes>
            0 -1 490 -6.3918754458427429e-03</internalNodes>
          <leafValues>
            5.2122712135314941e-01 -8.7290570139884949e-02</leafValues></_>
        <_>
          <internalNodes>
            0 -1 69 -1.7780461348593235e-03</internalNodes>
          <leafValues>
            -5.2482599020004272e-01 9.3817539513111115e-02</leafValues></_>
        <_>
          <internalNodes>
            0 -1 302 -2.3470767773687840e-03</internalNodes>
          <leafValues>
            5.4788732528686523e-01 -8.6851917207241058e-02</leafValues></_>
        <_>
          <internalNodes>
            0 -1 311 5.0346407078905031e-06</internalNodes>
          <leafValues>
            -3.5865136981010437e-01 1.4759968221187592e-01</leafValues></_>
        <_>
          <internalNodes>
            0 -1 508 2.1160332835279405e-05</internalNodes>
          <leafValues>
            1.1390163749456406e-01 -4.0676370263099670e-01</leafValues></_></weakClassifiers></_>
    <!-- stage 10 -->
    <_>
      <maxWeakCount>33</maxWeakCount>
      <stageThreshold>-9.1105365753173828e-01</stageThreshold>
      <weakClassifiers>
        <_>
          <internalNodes>
            0 -1 449 1.1220253072679043e-02</internalNodes>
          <leafValues>
            -8.6232982575893402e-02 6.5060240030288696e-01</leafValues></_>
        <_>
          <internalNodes>
            0 -1 269 8.8204897940158844e-02</internalNodes>
          <leafValues>
            -3.4340634942054749e-02 9.0675294399261475e-01</leafValues></_>
        <_>
          <internalNodes>
            0 -1 341 -1.5332679264247417e-02</internalNodes>
          <leafValues>
            6.8913131952285767e-01 -1.3848684728145599e-01</leafValues></_>
        <_>
          <internalNodes>
            0 -1 459 2.5216002541128546e-05</internalNodes>
          <leafValues>
            -4.2467385530471802e-01 1.4904260635375977e-01</leafValues></_>
        <_>
          <internalNodes>
            0 -1 492 -1.7348877736367285e-04</internalNodes>
          <leafValues>
            -2.8420075774192810e-01 1.8238103389739990e-01</leafValues></_>
        <_>
          <internalNodes>
            0 -1 232 3.5587526857852936e-02</internalNodes>
          <leafValues>
            -2.0145763456821442e-01 3.4065341949462891e-01</leafValues></_>
        <_>
          <internalNodes>
            0 -1 170 -1.1508229654282331e-03</internalNodes>
          <leafValues>
            5.0008767843246460e-01 -1.0703120380640030e-01</leafValues></_>
        <_>
          <internalNodes>
            0 -1 52 -7.9034041846171021e-05</internalNodes>
          <leafValues>
            -3.6956185102462769e-01 1.3742351531982422e-01</leafValues></_>
        <_>
          <internalNodes>
            0 -1 153 -9.2799693346023560e-02</internalNodes>
          <leafValues>
            2.6456695795059204e-01 -1.9482466578483582e-01</leafValues></_>
        <_>
          <internalNodes>
            0 -1 432 2.0900335584883578e-05</internalNodes>
          <leafValues>
            1.4567714929580688e-01 -2.8579953312873840e-01</leafValues></_>
        <_>
          <internalNodes>
            0 -1 123 1.7872519791126251e-02</internalNodes>
          <leafValues>
            -4.2456030845642090e-01 1.1306402087211609e-01</leafValues></_>
        <_>
          <internalNodes>
            0 -1 523 1.1682597920298576e-02</internalNodes>
          <leafValues>
            -1.1975044757127762e-01 4.4912970066070557e-01</leafValues></_>
        <_>
          <internalNodes>
            0 -1 329 -6.0626969207078218e-04</internalNodes>
          <leafValues>
            3.1826710700988770e-01 -1.2111874669790268e-01</leafValues></_>
        <_>
          <internalNodes>
            0 -1 403 2.4185545044019818e-05</internalNodes>
          <leafValues>
            1.8668346107006073e-01 -2.4782469868659973e-01</leafValues></_>
        <_>
          <internalNodes>
            0 -1 406 -7.1289716288447380e-05</internalNodes>
          <leafValues>
            -4.5016071200370789e-01 1.0056649893522263e-01</leafValues></_>
        <_>
          <internalNodes>
            0 -1 167 -2.5797677226364613e-03</internalNodes>
          <leafValues>
            3.7349522113800049e-01 -1.2067370861768723e-01</leafValues></_>
        <_>
          <internalNodes>
            0 -1 143 -7.7150797005742788e-04</internalNodes>
          <leafValues>
            3.9131256937980652e-01 -1.1209708452224731e-01</leafValues></_>
        <_>
          <internalNodes>
            0 -1 626 3.2036704942584038e-03</internalNodes>
          <leafValues>
            1.0655249655246735e-01 -4.5582810044288635e-01</leafValues></_>
        <_>
          <internalNodes>
            0 -1 20 9.8007777705788612e-04</internalNodes>
          <leafValues>
            -2.8932037949562073e-01 1.5481604635715485e-01</leafValues></_>
        <_>
          <internalNodes>
            0 -1 458 -4.3743011701735668e-06</internalNodes>
          <leafValues>
            2.3873633146286011e-01 -1.7266397178173065e-01</leafValues></_>
        <_>
          <internalNodes>
            0 -1 398 8.7253774836426601e-06</internalNodes>
          <leafValues>
            -2.4417534470558167e-01 2.3347474634647369e-01</leafValues></_>
        <_>
          <internalNodes>
            0 -1 191 3.7124186754226685e-02</internalNodes>
          <leafValues>
            1.4229564368724823e-01 -2.9318365454673767e-01</leafValues></_>
        <_>
          <internalNodes>
            0 -1 261 3.2939666416496038e-03</internalNodes>
          <leafValues>
            -8.1582374870777130e-02 5.0567787885665894e-01</leafValues></_>
        <_>
          <internalNodes>
            0 -1 443 -1.1794059537351131e-03</internalNodes>
          <leafValues>
            -4.0570694208145142e-01 1.0152726620435715e-01</leafValues></_>
        <_>
          <internalNodes>
            0 -1 637 -3.1822868622839451e-03</internalNodes>
          <leafValues>
            -3.5731008648872375e-01 1.0629051178693771e-01</leafValues></_>
        <_>
          <internalNodes>
            0 -1 580 5.7901605032384396e-04</internalNodes>
          <leafValues>
            9.8679564893245697e-02 -3.8557565212249756e-01</leafValues></_>
        <_>
          <internalNodes>
            0 -1 206 -2.1038320846855640e-03</internalNodes>
          <leafValues>
            5.2370947599411011e-01 -7.3063425719738007e-02</leafValues></_>
        <_>
          <internalNodes>
            0 -1 414 -6.1849523335695267e-03</internalNodes>
          <leafValues>
            1.3350641727447510e-01 -3.1709727644920349e-01</leafValues></_>
        <_>
          <internalNodes>
            0 -1 475 -7.0513216778635979e-03</internalNodes>
          <leafValues>
            -6.1653125286102295e-01 5.5298827588558197e-02</leafValues></_>
        <_>
          <internalNodes>
            0 -1 98 8.7009854614734650e-02</internalNodes>
          <leafValues>
            5.2202884107828140e-02 -6.4835375547409058e-01</leafValues></_>
        <_>
          <internalNodes>
            0 -1 445 -1.3913135044276714e-03</internalNodes>
          <leafValues>
            -5.8187365531921387e-01 6.3870519399642944e-02</leafValues></_>
        <_>
          <internalNodes>
            0 -1 160 1.8073797225952148e-02</internalNodes>
          <leafValues>
            4.9437347799539566e-02 -7.0294660329818726e-01</leafValues></_>
        <_>
          <internalNodes>
            0 -1 104 7.8648060560226440e-02</internalNodes>
          <leafValues>
            5.9473149478435516e-02 -5.4299008846282959e-01</leafValues></_></weakClassifiers></_>
    <!-- stage 11 -->
    <_>
      <maxWeakCount>32</maxWeakCount>
      <stageThreshold>-8.6437684297561646e-01</stageThreshold>
      <weakClassifiers>
        <_>
          <internalNodes>
            0 -1 238 3.1667468138039112e-03</internalNodes>
          <leafValues>
            -2.9585799202322960e-02 6.0862863063812256e-01</leafValues></_>
        <_>
          <internalNodes>
            0 -1 415 5.3204290568828583e-02</internalNodes>
          <leafValues>
            -1.4567999541759491e-01 4.5112892985343933e-01</leafValues></_>
        <_>
          <internalNodes>
            0 -1 182 3.2922651153057814e-03</internalNodes>
          <leafValues>
            -8.5130997002124786e-02 6.1931198835372925e-01</leafValues></_>
        <_>
          <internalNodes>
            0 -1 343 7.2150100022554398e-03</internalNodes>
          <leafValues>
            -1.4641450345516205e-01 5.6027817726135254e-01</leafValues></_>
        <_>
          <internalNodes>
            0 -1 171 -8.5947086336091161e-04</internalNodes>
          <leafValues>
            3.8957309722900391e-01 -1.2605091929435730e-01</leafValues></_>
        <_>
          <internalNodes>
            0 -1 156 -6.6087224695365876e-05</internalNodes>
          <leafValues>
            1.8935911357402802e-01 -2.8873997926712036e-01</leafValues></_>
        <_>
          <internalNodes>
            0 -1 351 -9.4048946266411804e-06</internalNodes>
          <leafValues>
            2.5839886069297791e-01 -1.8126434087753296e-01</leafValues></_>
        <_>
          <internalNodes>
            0 -1 58 -8.4059108048677444e-03</internalNodes>
          <leafValues>
            -4.4483262300491333e-01 9.3471512198448181e-02</leafValues></_>
        <_>
          <internalNodes>
            0 -1 289 1.4830192551016808e-02</internalNodes>
          <leafValues>
            8.2954265177249908e-02 -4.7913497686386108e-01</leafValues></_>
        <_>
          <internalNodes>
            0 -1 601 -2.1206727251410484e-03</internalNodes>
          <leafValues>
            3.2597205042839050e-01 -1.2832629680633545e-01</leafValues></_>
        <_>
          <internalNodes>
            0 -1 459 5.0034086598316208e-06</internalNodes>
          <leafValues>
            -4.6843132376670837e-01 9.9371187388896942e-02</leafValues></_>
        <_>
          <internalNodes>
            0 -1 556 -3.5726539790630341e-03</internalNodes>
          <leafValues>
            2.6735749840736389e-01 -1.7623516917228699e-01</leafValues></_>
        <_>
          <internalNodes>
            0 -1 143 -9.6470268908888102e-04</internalNodes>
          <leafValues>
            4.4750612974166870e-01 -1.0295402258634567e-01</leafValues></_>
        <_>
          <internalNodes>
            0 -1 128 -1.7722288612276316e-04</internalNodes>
          <leafValues>
            -3.4366524219512939e-01 1.3342769443988800e-01</leafValues></_>
        <_>
          <internalNodes>
            0 -1 573 -1.9417898147366941e-04</internalNodes>
          <leafValues>
            -2.6407107710838318e-01 1.4586569368839264e-01</leafValues></_>
        <_>
          <internalNodes>
            0 -1 393 7.2048250585794449e-03</internalNodes>
          <leafValues>
            -8.1378616392612457e-02 5.8990114927291870e-01</leafValues></_>
        <_>
          <internalNodes>
            0 -1 463 3.2822463253978640e-05</internalNodes>
          <leafValues>
            1.2628525495529175e-01 -3.5660207271575928e-01</leafValues></_>
        <_>
          <internalNodes>
            0 -1 164 -1.7176883993670344e-03</internalNodes>
          <leafValues>
            2.8685316443443298e-01 -1.5509240329265594e-01</leafValues></_>
        <_>
          <internalNodes>
            0 -1 283 2.9944712296128273e-03</internalNodes>
          <leafValues>
            -6.6024631261825562e-02 6.3705945014953613e-01</leafValues></_>
        <_>
          <internalNodes>
            0 -1 378 9.3907747213961557e-06</internalNodes>
          <leafValues>
            -1.6222859919071198e-01 2.3932307958602905e-01</leafValues></_>
        <_>
          <internalNodes>
            0 -1 624 5.8228254783898592e-04</internalNodes>
          <leafValues>
            7.5600191950798035e-02 -6.2120640277862549e-01</leafValues></_>
        <_>
          <internalNodes>
            0 -1 583 2.0641614682972431e-03</internalNodes>
          <leafValues>
            -1.1830759793519974e-01 3.3969417214393616e-01</leafValues></_>
        <_>
          <internalNodes>
            0 -1 625 3.7705940194427967e-03</internalNodes>
          <leafValues>
            6.2411416321992874e-02 -7.1540892124176025e-01</leafValues></_>
        <_>
          <internalNodes>
            0 -1 193 2.3796502500772476e-02</internalNodes>
          <leafValues>
            7.1380294859409332e-02 -4.9134457111358643e-01</leafValues></_>
        <_>
          <internalNodes>
            0 -1 350 7.9014562070369720e-03</internalNodes>
          <leafValues>
            4.0151383727788925e-02 -7.4893748760223389e-01</leafValues></_>
        <_>
          <internalNodes>
            0 -1 410 4.8788790591061115e-03</internalNodes>
          <leafValues>
            5.8990571647882462e-02 -5.8589285612106323e-01</leafValues></_>
        <_>
          <internalNodes>
            0 -1 579 -4.3389823076722678e-06</internalNodes>
          <leafValues>
            2.4569141864776611e-01 -1.6248756647109985e-01</leafValues></_>
        <_>
          <internalNodes>
            0 -1 333 1.4147893525660038e-03</internalNodes>
          <leafValues>
            -9.5878563821315765e-02 3.7936544418334961e-01</leafValues></_>
        <_>
          <internalNodes>
            0 -1 455 4.2830738493648823e-06</internalNodes>
          <leafValues>
            -1.7857521772384644e-01 2.5947335362434387e-01</leafValues></_>
        <_>
          <internalNodes>
            0 -1 457 3.3551466913195327e-05</internalNodes>
          <leafValues>
            1.3443031907081604e-01 -3.1081178784370422e-01</leafValues></_>
        <_>
          <internalNodes>
            0 -1 454 9.0669827841338702e-06</internalNodes>
          <leafValues>
            -1.9160890579223633e-01 2.0434290170669556e-01</leafValues></_>
        <_>
          <internalNodes>
            0 -1 65 2.6817759498953819e-03</internalNodes>
          <leafValues>
            7.6936244964599609e-02 -5.2267742156982422e-01</leafValues></_></weakClassifiers></_>
    <!-- stage 12 -->
    <_>
      <maxWeakCount>38</maxWeakCount>
      <stageThreshold>-8.2016378641128540e-01</stageThreshold>
      <weakClassifiers>
        <_>
          <internalNodes>
            0 -1 384 3.6828979849815369e-02</internalNodes>
          <leafValues>
            5.3392659872770309e-02 7.6760566234588623e-01</leafValues></_>
        <_>
          <internalNodes>
            0 -1 266 5.4438799619674683e-02</internalNodes>
          <leafValues>
            -4.5299153774976730e-02 6.9560557603836060e-01</leafValues></_>
        <_>
          <internalNodes>
            0 -1 122 4.6528475359082222e-03</internalNodes>
          <leafValues>
            -1.2313637882471085e-01 6.3647067546844482e-01</leafValues></_>
        <_>
          <internalNodes>
            0 -1 173 3.3672531135380268e-03</internalNodes>
          <leafValues>
            -1.2927722930908203e-01 3.7622582912445068e-01</leafValues></_>
        <_>
          <internalNodes>
            0 -1 500 1.2118306010961533e-02</internalNodes>
          <leafValues>
            -1.9239942729473114e-01 2.7667888998985291e-01</leafValues></_>
        <_>
          <internalNodes>
            0 -1 216 4.1896633803844452e-02</internalNodes>
          <leafValues>
            -7.3289103806018829e-02 6.4753341674804688e-01</leafValues></_>
        <_>
          <internalNodes>
            0 -1 404 -6.1810016632080078e-05</internalNodes>
          <leafValues>
            -4.4283926486968994e-01 1.1238287389278412e-01</leafValues></_>
        <_>
          <internalNodes>
            0 -1 484 9.9869866971857846e-06</internalNodes>
          <leafValues>
            -4.0316474437713623e-01 1.1166153848171234e-01</leafValues></_>
        <_>
          <internalNodes>
            0 -1 408 7.1963957452680916e-05</internalNodes>
          <leafValues>
            1.3795232772827148e-01 -3.3266842365264893e-01</leafValues></_>
        <_>
          <internalNodes>
            0 -1 609 -3.5172977950423956e-03</internalNodes>
          <leafValues>
            -4.4768023490905762e-01 8.4234774112701416e-02</leafValues></_>
        <_>
          <internalNodes>
            0 -1 321 8.1677645444869995e-02</internalNodes>
          <leafValues>
            -6.8839922547340393e-02 5.5999165773391724e-01</leafValues></_>
        <_>
          <internalNodes>
            0 -1 34 -3.6050443304702640e-04</internalNodes>
          <leafValues>
            -3.6282861232757568e-01 1.1359681934118271e-01</leafValues></_>
        <_>
          <internalNodes>
            0 -1 184 1.2267454294487834e-03</internalNodes>
          <leafValues>
            -5.3691737353801727e-02 6.4865320920944214e-01</leafValues></_>
        <_>
          <internalNodes>
            0 -1 513 -2.0453815523069352e-05</internalNodes>
          <leafValues>
            -2.7728918194770813e-01 1.5317770838737488e-01</leafValues></_>
        <_>
          <internalNodes>
            0 -1 513 1.2610992416739464e-04</internalNodes>
          <leafValues>
            9.4523690640926361e-02 -3.7833991646766663e-01</leafValues></_>
        <_>
          <internalNodes>
            0 -1 365 6.0859060613438487e-04</internalNodes>
          <leafValues>
            -1.2646196782588959e-01 3.2038605213165283e-01</leafValues></_>
        <_>
          <internalNodes>
            0 -1 503 -1.7017163336277008e-03</internalNodes>
          <leafValues>
            4.7629591822624207e-01 -1.0554592311382294e-01</leafValues></_>
        <_>
          <internalNodes>
            0 -1 245 -1.4472381444647908e-03</internalNodes>
          <leafValues>
            6.7737513780593872e-01 -5.3537666797637939e-02</leafValues></_>
        <_>
          <internalNodes>
            0 -1 222 1.5069968998432159e-02</internalNodes>
          <leafValues>
            -4.0396526455879211e-02 8.1595808267593384e-01</leafValues></_>
        <_>
          <internalNodes>
            0 -1 397 -3.3990865631494671e-05</internalNodes>
          <leafValues>
            -3.3254116773605347e-01 1.3899858295917511e-01</leafValues></_>
        <_>
          <internalNodes>
            0 -1 195 6.8121738731861115e-03</internalNodes>
          <leafValues>
            -6.1696711927652359e-02 6.2312871217727661e-01</leafValues></_>
        <_>
          <internalNodes>
            0 -1 440 -4.3497197329998016e-03</internalNodes>
          <leafValues>
            4.5842751860618591e-01 -7.4582695960998535e-02</leafValues></_>
        <_>
          <internalNodes>
            0 -1 391 6.8514933809638023e-04</internalNodes>
          <leafValues>
            1.7357969284057617e-01 -2.4526526033878326e-01</leafValues></_>
        <_>
          <internalNodes>
            0 -1 310 3.5164564906153828e-05</internalNodes>
          <leafValues>
            1.4340102672576904e-01 -2.5277277827262878e-01</leafValues></_>
        <_>
          <internalNodes>
            0 -1 211 9.2382839648053050e-04</internalNodes>
          <leafValues>
            -1.0229127109050751e-01 3.3771333098411560e-01</leafValues></_>
        <_>
          <internalNodes>
            0 -1 223 9.7349047660827637e-02</internalNodes>
          <leafValues>
            8.9163884520530701e-02 -4.1555565595626831e-01</leafValues></_>
        <_>
          <internalNodes>
            0 -1 323 -8.1163374707102776e-03</internalNodes>
          <leafValues>
            1.0663555562496185e-01 -3.5373970866203308e-01</leafValues></_>
        <_>
          <internalNodes>
            0 -1 5 -5.2123784553259611e-04</internalNodes>
          <leafValues>
            -3.8649711012840271e-01 1.0077875852584839e-01</leafValues></_>
        <_>
          <internalNodes>
            0 -1 620 6.0634272813331336e-05</internalNodes>
          <leafValues>
            1.0955136269330978e-01 -3.3400034904479980e-01</leafValues></_>
        <_>
          <internalNodes>
            0 -1 257 2.6123379939235747e-04</internalNodes>
          <leafValues>
            7.2633951902389526e-02 -4.8580971360206604e-01</leafValues></_>
        <_>
          <internalNodes>
            0 -1 428 9.8009368230123073e-06</internalNodes>
          <leafValues>
            -2.4437895417213440e-01 1.5024647116661072e-01</leafValues></_>
        <_>
          <internalNodes>
            0 -1 2 -1.7722886055707932e-02</internalNodes>
          <leafValues>
            -4.3885016441345215e-01 7.8691303730010986e-02</leafValues></_>
        <_>
          <internalNodes>
            0 -1 370 -1.1976435780525208e-04</internalNodes>
          <leafValues>
            -6.1525148153305054e-01 5.4612960666418076e-02</leafValues></_>
        <_>
          <internalNodes>
            0 -1 148 -9.9696917459368706e-05</internalNodes>
          <leafValues>
            2.7507057785987854e-01 -1.4534907042980194e-01</leafValues></_>
        <_>
          <internalNodes>
            0 -1 103 -2.4429378099739552e-03</internalNodes>
          <leafValues>
            2.4619819223880768e-01 -1.9532318413257599e-01</leafValues></_>
        <_>
          <internalNodes>
            0 -1 86 3.4917909943033010e-05</internalNodes>
          <leafValues>
            -1.9988112151622772e-01 1.9992512464523315e-01</leafValues></_>
        <_>
          <internalNodes>
            0 -1 335 1.7542345449328423e-02</internalNodes>
          <leafValues>
            -6.0934677720069885e-02 6.0481065511703491e-01</leafValues></_>
        <_>
          <internalNodes>
            0 -1 396 1.2043709866702557e-03</internalNodes>
          <leafValues>
            -1.0918512940406799e-01 4.2496386170387268e-01</leafValues></_></weakClassifiers></_>
    <!-- stage 13 -->
    <_>
      <maxWeakCount>45</maxWeakCount>
      <stageThreshold>-7.5498062372207642e-01</stageThreshold>
      <weakClassifiers>
        <_>
          <internalNodes>
            0 -1 154 1.3295819051563740e-02</internalNodes>
          <leafValues>
            -1.3288287818431854e-01 4.6209385991096497e-01</leafValues></_>
        <_>
          <internalNodes>
            0 -1 168 -2.1904343739151955e-03</internalNodes>
          <leafValues>
            3.1398415565490723e-01 -1.7893292009830475e-01</leafValues></_>
        <_>
          <internalNodes>
            0 -1 268 8.2049161195755005e-02</internalNodes>
          <leafValues>
            -5.7471387088298798e-02 8.1467682123184204e-01</leafValues></_>
        <_>
          <internalNodes>
            0 -1 150 -8.9285126887261868e-04</internalNodes>
          <leafValues>
            6.4168769121170044e-01 -1.0123523324728012e-01</leafValues></_>
        <_>
          <internalNodes>
            0 -1 417 1.3094407506287098e-02</internalNodes>
          <leafValues>
            -8.4276586771011353e-02 5.1988422870635986e-01</leafValues></_>
        <_>
          <internalNodes>
            0 -1 172 -4.2984273750334978e-04</internalNodes>
          <leafValues>
            3.1771880388259888e-01 -1.1110249906778336e-01</leafValues></_>
        <_>
          <internalNodes>
            0 -1 540 2.1500881761312485e-02</internalNodes>
          <leafValues>
            -9.3316398561000824e-02 4.7430601716041565e-01</leafValues></_>
        <_>
          <internalNodes>
            0 -1 551 -4.8687761591281742e-05</internalNodes>
          <leafValues>
            -3.0003800988197327e-01 1.8127176165580750e-01</leafValues></_>
        <_>
          <internalNodes>
            0 -1 488 -2.7121866878587753e-05</internalNodes>
          <leafValues>
            -3.2163250446319580e-01 1.1736181378364563e-01</leafValues></_>
        <_>
          <internalNodes>
            0 -1 18 1.3047301769256592e-01</internalNodes>
          <leafValues>
            8.4066554903984070e-02 -4.6558147668838501e-01</leafValues></_>
        <_>
          <internalNodes>
            0 -1 317 9.4160344451665878e-03</internalNodes>
          <leafValues>
            -8.3021141588687897e-02 4.8124700784683228e-01</leafValues></_>
        <_>
          <internalNodes>
            0 -1 506 5.5662560043856502e-05</internalNodes>
          <leafValues>
            -2.7959105372428894e-01 1.5545186400413513e-01</leafValues></_>
        <_>
          <internalNodes>
            0 -1 28 3.6220215260982513e-02</internalNodes>
          <leafValues>
            -2.7068182826042175e-01 1.4812928438186646e-01</leafValues></_>
        <_>
          <internalNodes>
            0 -1 221 1.6124138608574867e-02</internalNodes>
          <leafValues>
            2.1843284368515015e-01 -1.9327533245086670e-01</leafValues></_>
        <_>
          <internalNodes>
            0 -1 465 -1.8649177945917472e-05</internalNodes>
          <leafValues>
            -3.8374641537666321e-01 1.0393260419368744e-01</leafValues></_>
        <_>
          <internalNodes>
            0 -1 463 -3.9432516132364981e-06</internalNodes>
          <leafValues>
            1.7359533905982971e-01 -1.9691170752048492e-01</leafValues></_>
        <_>
          <internalNodes>
            0 -1 489 -3.3992182579822838e-05</internalNodes>
          <leafValues>
            -2.4696095287799835e-01 1.6844011843204498e-01</leafValues></_>
        <_>
          <internalNodes>
            0 -1 461 -6.3137309625744820e-03</internalNodes>
          <leafValues>
            6.3084888458251953e-01 -5.8634154498577118e-02</leafValues></_>
        <_>
          <internalNodes>
            0 -1 501 2.9370986158028245e-04</internalNodes>
          <leafValues>
            -1.1680631339550018e-01 2.8872501850128174e-01</leafValues></_>
        <_>
          <internalNodes>
            0 -1 418 -4.1022038203664124e-04</internalNodes>
          <leafValues>
            -3.0604580044746399e-01 1.3332238793373108e-01</leafValues></_>
        <_>
          <internalNodes>
            0 -1 91 1.4853239990770817e-03</internalNodes>
          <leafValues>
            -1.2070805579423904e-01 2.7042776346206665e-01</leafValues></_>
        <_>
          <internalNodes>
            0 -1 467 1.0768182619358413e-05</internalNodes>
          <leafValues>
            -2.1527726948261261e-01 1.6863770782947540e-01</leafValues></_>
        <_>
          <internalNodes>
            0 -1 245 -1.5137261943891644e-03</internalNodes>
          <leafValues>
            5.8493685722351074e-01 -5.7371582835912704e-02</leafValues></_>
        <_>
          <internalNodes>
            0 -1 85 -2.1785807330161333e-03</internalNodes>
          <leafValues>
            2.2752837836742401e-01 -1.5273064374923706e-01</leafValues></_>
        <_>
          <internalNodes>
            0 -1 611 3.4896195866167545e-03</internalNodes>
          <leafValues>
            6.9151408970355988e-02 -5.1948124170303345e-01</leafValues></_>
        <_>
          <internalNodes>
            0 -1 251 7.7077376772649586e-05</internalNodes>
          <leafValues>
            1.0894556343555450e-01 -2.8141650557518005e-01</leafValues></_>
        <_>
          <internalNodes>
            0 -1 453 3.3483724109828472e-05</internalNodes>
          <leafValues>
            -2.8302341699600220e-01 1.2678773701190948e-01</leafValues></_>
        <_>
          <internalNodes>
            0 -1 552 3.7566773593425751e-02</internalNodes>
          <leafValues>
            -7.2415761649608612e-02 4.6191352605819702e-01</leafValues></_>
        <_>
          <internalNodes>
            0 -1 253 3.4378333948552608e-03</internalNodes>
          <leafValues>
            -7.9876974225044250e-02 4.2863872647285461e-01</leafValues></_>
        <_>
          <internalNodes>
            0 -1 273 -7.3702010558918118e-04</internalNodes>
          <leafValues>
            2.5157448649406433e-01 -1.7265684902667999e-01</leafValues></_>
        <_>
          <internalNodes>
            0 -1 364 2.5804936740314588e-05</internalNodes>
          <leafValues>
            1.8137699365615845e-01 -2.1504108607769012e-01</leafValues></_>
        <_>
          <internalNodes>
            0 -1 303 -2.9277571011334658e-03</internalNodes>
          <leafValues>
            3.4980770945549011e-01 -1.1485825479030609e-01</leafValues></_>
        <_>
          <internalNodes>
            0 -1 12 8.6441182065755129e-04</internalNodes>
          <leafValues>
            8.0365404486656189e-02 -4.3446066975593567e-01</leafValues></_>
        <_>
          <internalNodes>
            0 -1 528 6.0252351686358452e-03</internalNodes>
          <leafValues>
            -1.1678925156593323e-01 2.7131974697113037e-01</leafValues></_>
        <_>
          <internalNodes>
            0 -1 480 -5.9022766072303057e-04</internalNodes>
          <leafValues>
            3.0903139710426331e-01 -1.0603971034288406e-01</leafValues></_>
        <_>
          <internalNodes>
            0 -1 46 1.1925360560417175e-01</internalNodes>
          <leafValues>
            7.6142862439155579e-02 -4.8950853943824768e-01</leafValues></_>
        <_>
          <internalNodes>
            0 -1 95 -1.9087623804807663e-03</internalNodes>
          <leafValues>
            -3.0524554848670959e-01 1.0244121402502060e-01</leafValues></_>
        <_>
          <internalNodes>
            0 -1 115 -9.0339832240715623e-05</internalNodes>
          <leafValues>
            1.7319972813129425e-01 -2.0036816596984863e-01</leafValues></_>
        <_>
          <internalNodes>
            0 -1 108 1.8751990050077438e-02</internalNodes>
          <leafValues>
            4.8752337694168091e-02 -7.1309828758239746e-01</leafValues></_>
        <_>
          <internalNodes>
            0 -1 187 8.4669567877426744e-04</internalNodes>
          <leafValues>
            -7.0312462747097015e-02 5.6143862009048462e-01</leafValues></_>
        <_>
          <internalNodes>
            0 -1 194 -1.1781155131757259e-02</internalNodes>
          <leafValues>
            1.7973656952381134e-01 -1.9432851672172546e-01</leafValues></_>
        <_>
          <internalNodes>
            0 -1 473 1.8303967081010342e-03</internalNodes>
          <leafValues>
            -1.8432307243347168e-01 1.9927033782005310e-01</leafValues></_>
        <_>
          <internalNodes>
            0 -1 318 4.5397240319289267e-04</internalNodes>
          <leafValues>
            8.1074215471744537e-02 -4.2518833279609680e-01</leafValues></_>
        <_>
          <internalNodes>
            0 -1 56 2.4274750612676144e-03</internalNodes>
          <leafValues>
            4.5358043164014816e-02 -6.7315202951431274e-01</leafValues></_>
        <_>
          <internalNodes>
            0 -1 424 7.0883985608816147e-04</internalNodes>
          <leafValues>
            -1.1053740978240967e-01 2.9592186212539673e-01</leafValues></_></weakClassifiers></_>
    <!-- stage 14 -->
    <_>
      <maxWeakCount>42</maxWeakCount>
      <stageThreshold>-8.9278554916381836e-01</stageThreshold>
      <weakClassifiers>
        <_>
          <internalNodes>
            0 -1 377 3.9405822753906250e-03</internalNodes>
          <leafValues>
            6.6834807395935059e-02 5.6431537866592407e-01</leafValues></_>
        <_>
          <internalNodes>
            0 -1 394 4.0237773646367714e-06</internalNodes>
          <leafValues>
            -2.8322932124137878e-01 2.0211489498615265e-01</leafValues></_>
        <_>
          <internalNodes>
            0 -1 568 2.1464803721755743e-03</internalNodes>
          <leafValues>
            -2.0649076998233795e-01 2.2560904920101166e-01</leafValues></_>
        <_>
          <internalNodes>
            0 -1 316 -1.8149897456169128e-02</internalNodes>
          <leafValues>
            5.0507414340972900e-01 -8.1808000802993774e-02</leafValues></_>
        <_>
          <internalNodes>
            0 -1 312 -5.9277224354445934e-03</internalNodes>
          <leafValues>
            4.2608425021171570e-01 -1.2213197350502014e-01</leafValues></_>
        <_>
          <internalNodes>
            0 -1 314 5.4675980209140107e-05</internalNodes>
          <leafValues>
            1.5036222338676453e-01 -2.3102305829524994e-01</leafValues></_>
        <_>
          <internalNodes>
            0 -1 165 -6.8505983799695969e-03</internalNodes>
          <leafValues>
            3.3937314152717590e-01 -1.0491377115249634e-01</leafValues></_>
        <_>
          <internalNodes>
            0 -1 114 -5.8156170416623354e-04</internalNodes>
          <leafValues>
            2.3640955984592438e-01 -1.9722783565521240e-01</leafValues></_>
        <_>
          <internalNodes>
            0 -1 89 -2.0823469385504723e-03</internalNodes>
          <leafValues>
            -5.6442439556121826e-01 9.6549898386001587e-02</leafValues></_>
        <_>
          <internalNodes>
            0 -1 487 1.7248155199922621e-04</internalNodes>
          <leafValues>
            5.2114006131887436e-02 -6.6121339797973633e-01</leafValues></_>
        <_>
          <internalNodes>
            0 -1 326 4.7424897551536560e-02</internalNodes>
          <leafValues>
            -7.1946151554584503e-02 7.2620803117752075e-01</leafValues></_>
        <_>
          <internalNodes>
            0 -1 525 7.0346292341127992e-04</internalNodes>
          <leafValues>
            7.8227840363979340e-02 -6.9452250003814697e-01</leafValues></_>
        <_>
          <internalNodes>
            0 -1 408 2.0865842816419899e-04</internalNodes>
          <leafValues>
            9.4207510352134705e-02 -4.0247043967247009e-01</leafValues></_>
        <_>
          <internalNodes>
            0 -1 208 -3.6656210431829095e-04</internalNodes>
          <leafValues>
            -3.4792268276214600e-01 9.5166720449924469e-02</leafValues></_>
        <_>
          <internalNodes>
            0 -1 169 -1.0354281403124332e-03</internalNodes>
          <leafValues>
            3.8678979873657227e-01 -9.9924355745315552e-02</leafValues></_>
        <_>
          <internalNodes>
            0 -1 180 1.2428425252437592e-03</internalNodes>
          <leafValues>
            -5.7266362011432648e-02 6.2120819091796875e-01</leafValues></_>
        <_>
          <internalNodes>
            0 -1 366 1.4209325308911502e-04</internalNodes>
          <leafValues>
            -1.7820662260055542e-01 2.1575649082660675e-01</leafValues></_>
        <_>
          <internalNodes>
            0 -1 184 1.7622464802116156e-03</internalNodes>
          <leafValues>
            -4.9738619476556778e-02 7.1598100662231445e-01</leafValues></_>
        <_>
          <internalNodes>
            0 -1 481 -1.5382017008960247e-03</internalNodes>
          <leafValues>
            -7.8893435001373291e-01 5.2656520158052444e-02</leafValues></_>
        <_>
          <internalNodes>
            0 -1 617 1.6158071957761422e-05</internalNodes>
          <leafValues>
            -1.8345214426517487e-01 1.6794604063034058e-01</leafValues></_>
        <_>
          <internalNodes>
            0 -1 33 -4.8154388787224889e-04</internalNodes>
          <leafValues>
            -4.3171781301498413e-01 8.4208525717258453e-02</leafValues></_>
        <_>
          <internalNodes>
            0 -1 427 1.1311916750855744e-05</internalNodes>
          <leafValues>
            -3.7272381782531738e-01 9.0033255517482758e-02</leafValues></_>
        <_>
          <internalNodes>
            0 -1 388 1.0298336746927816e-05</internalNodes>
          <leafValues>
            -1.9366142153739929e-01 1.7655578255653381e-01</leafValues></_>
        <_>
          <internalNodes>
            0 -1 403 2.8679591196123511e-05</internalNodes>
          <leafValues>
            1.8936380743980408e-01 -2.3607048392295837e-01</leafValues></_>
        <_>
          <internalNodes>
            0 -1 392 4.2194202542304993e-03</internalNodes>
          <leafValues>
            -9.7073636949062347e-02 4.2802661657333374e-01</leafValues></_>
        <_>
          <internalNodes>
            0 -1 569 1.1698329217324499e-05</internalNodes>
          <leafValues>
            -1.5797118842601776e-01 2.4459935724735260e-01</leafValues></_>
        <_>
          <internalNodes>
            0 -1 252 7.1297443355433643e-05</internalNodes>
          <leafValues>
            1.3644954562187195e-01 -2.8675904870033264e-01</leafValues></_>
        <_>
          <internalNodes>
            0 -1 163 2.5365430861711502e-02</internalNodes>
          <leafValues>
            5.6700468063354492e-02 -6.3745552301406860e-01</leafValues></_>
        <_>
          <internalNodes>
            0 -1 598 -2.9080850072205067e-04</internalNodes>
          <leafValues>
            2.1201154589653015e-01 -1.8181373178958893e-01</leafValues></_>
        <_>
          <internalNodes>
            0 -1 197 -1.1757044121623039e-03</internalNodes>
          <leafValues>
            4.0320006012916565e-01 -8.7551519274711609e-02</leafValues></_>
        <_>
          <internalNodes>
            0 -1 347 1.2166108717792667e-05</internalNodes>
          <leafValues>
            -2.6522225141525269e-01 1.3887730240821838e-01</leafValues></_>
        <_>
          <internalNodes>
            0 -1 43 -4.8088999465107918e-03</internalNodes>
          <leafValues>
            -5.9378188848495483e-01 5.4735526442527771e-02</leafValues></_>
        <_>
          <internalNodes>
            0 -1 595 1.0810735821723938e-01</internalNodes>
          <leafValues>
            4.3284576386213303e-02 -6.8225842714309692e-01</leafValues></_>
        <_>
          <internalNodes>
            0 -1 476 -1.8416703678667545e-03</internalNodes>
          <leafValues>
            -2.8774550557136536e-01 1.1054768413305283e-01</leafValues></_>
        <_>
          <internalNodes>
            0 -1 60 -4.6223453246057034e-03</internalNodes>
          <leafValues>
            -7.4430149793624878e-01 4.2228844016790390e-02</leafValues></_>
        <_>
          <internalNodes>
            0 -1 622 -1.9927424727939069e-04</internalNodes>
          <leafValues>
            2.4086776375770569e-01 -1.4539489150047302e-01</leafValues></_>
        <_>
          <internalNodes>
            0 -1 203 5.1093485672026873e-04</internalNodes>
          <leafValues>
            -8.3388991653919220e-02 4.2596158385276794e-01</leafValues></_>
        <_>
          <internalNodes>
            0 -1 531 4.2778954957611859e-04</internalNodes>
          <leafValues>
            7.6290853321552277e-02 -4.8949289321899414e-01</leafValues></_>
        <_>
          <internalNodes>
            0 -1 585 1.3736216715187766e-05</internalNodes>
          <leafValues>
            -1.7772360146045685e-01 2.0196731388568878e-01</leafValues></_>
        <_>
          <internalNodes>
            0 -1 630 7.7066812664270401e-03</internalNodes>
          <leafValues>
            4.8227623105049133e-02 -7.1107929944992065e-01</leafValues></_>
        <_>
          <internalNodes>
            0 -1 584 7.6532736420631409e-04</internalNodes>
          <leafValues>
            6.1354067176580429e-02 -4.8111185431480408e-01</leafValues></_>
        <_>
          <internalNodes>
            0 -1 413 3.1555563327856362e-04</internalNodes>
          <leafValues>
            7.7013343572616577e-02 -3.6789932847023010e-01</leafValues></_></weakClassifiers></_>
    <!-- stage 15 -->
    <_>
      <maxWeakCount>46</maxWeakCount>
      <stageThreshold>-7.9934960603713989e-01</stageThreshold>
      <weakClassifiers>
        <_>
          <internalNodes>
            0 -1 409 1.9167363643646240e-03</internalNodes>
          <leafValues>
            2.0228672772645950e-02 4.4373673200607300e-01</leafValues></_>
        <_>
          <internalNodes>
            0 -1 520 6.1519168317317963e-02</internalNodes>
          <leafValues>
            -5.7372558861970901e-02 6.6510844230651855e-01</leafValues></_>
        <_>
          <internalNodes>
            0 -1 425 1.0359086096286774e-02</internalNodes>
          <leafValues>
            -1.0156911611557007e-01 6.9624495506286621e-01</leafValues></_>
        <_>
          <internalNodes>
            0 -1 131 5.9733716771006584e-03</internalNodes>
          <leafValues>
            -1.4786250889301300e-01 2.5489857792854309e-01</leafValues></_>
        <_>
          <internalNodes>
            0 -1 121 3.1890664249658585e-03</internalNodes>
          <leafValues>
            -5.0512384623289108e-02 9.6331477165222168e-01</leafValues></_>
        <_>
          <internalNodes>
            0 -1 145 -1.4150437200441957e-03</internalNodes>
          <leafValues>
            5.1936799287796021e-01 -4.0193676948547363e-02</leafValues></_>
        <_>
          <internalNodes>
            0 -1 308 2.2712215781211853e-02</internalNodes>
          <leafValues>
            -5.6766945868730545e-02 7.4958032369613647e-01</leafValues></_>
        <_>
          <internalNodes>
            0 -1 147 1.8994925543665886e-02</internalNodes>
          <leafValues>
            7.6620884239673615e-02 -5.2057737112045288e-01</leafValues></_>
        <_>
          <internalNodes>
            0 -1 201 -7.0326001150533557e-04</internalNodes>
          <leafValues>
            4.5970940589904785e-01 -8.2848623394966125e-02</leafValues></_>
        <_>
          <internalNodes>
            0 -1 507 1.4297344023361802e-04</internalNodes>
          <leafValues>
            -1.5662446618080139e-01 2.6350831985473633e-01</leafValues></_>
        <_>
          <internalNodes>
            0 -1 142 -1.1919869575649500e-03</internalNodes>
          <leafValues>
            4.7452187538146973e-01 -6.3563205301761627e-02</leafValues></_>
        <_>
          <internalNodes>
            0 -1 463 3.3158234145957977e-05</internalNodes>
          <leafValues>
            1.0411912947893143e-01 -3.3532428741455078e-01</leafValues></_>
        <_>
          <internalNodes>
            0 -1 434 4.4122075451014098e-06</internalNodes>
          <leafValues>
            -3.3254027366638184e-01 1.1206369847059250e-01</leafValues></_>
        <_>
          <internalNodes>
            0 -1 512 -9.5201627118512988e-05</internalNodes>
          <leafValues>
            -2.2675293684005737e-01 1.3948291540145874e-01</leafValues></_>
        <_>
          <internalNodes>
            0 -1 516 -2.4961563758552074e-04</internalNodes>
          <leafValues>
            -2.5864744186401367e-01 1.5151788294315338e-01</leafValues></_>
        <_>
          <internalNodes>
            0 -1 515 1.0806238606164698e-05</internalNodes>
          <leafValues>
            -1.8886891007423401e-01 2.1193809807300568e-01</leafValues></_>
        <_>
          <internalNodes>
            0 -1 281 -3.9536166004836559e-03</internalNodes>
          <leafValues>
            2.8549337387084961e-01 -1.4184920489788055e-01</leafValues></_>
        <_>
          <internalNodes>
            0 -1 7 -1.7979746684432030e-02</internalNodes>
          <leafValues>
            -4.1489201784133911e-01 8.5442781448364258e-02</leafValues></_>
        <_>
          <internalNodes>
            0 -1 539 -5.3617935627698898e-03</internalNodes>
          <leafValues>
            -3.2685527205467224e-01 1.0441503673791885e-01</leafValues></_>
        <_>
          <internalNodes>
            0 -1 202 4.6402591397054493e-04</internalNodes>
          <leafValues>
            -5.8432046324014664e-02 5.3286373615264893e-01</leafValues></_>
        <_>
          <internalNodes>
            0 -1 574 1.5656633768230677e-03</internalNodes>
          <leafValues>
            5.9261552989482880e-02 -5.5997359752655029e-01</leafValues></_>
        <_>
          <internalNodes>
            0 -1 369 2.9409764334559441e-02</internalNodes>
          <leafValues>
            -1.3409635424613953e-01 2.2714404761791229e-01</leafValues></_>
        <_>
          <internalNodes>
            0 -1 230 1.3023694977164268e-02</internalNodes>
          <leafValues>
            1.9900970160961151e-01 -1.7948035895824432e-01</leafValues></_>
        <_>
          <internalNodes>
            0 -1 247 3.7003247416578233e-04</internalNodes>
          <leafValues>
            -6.1125297099351883e-02 4.7433176636695862e-01</leafValues></_>
        <_>
          <internalNodes>
            0 -1 9 3.5430124262347817e-04</internalNodes>
          <leafValues>
            1.0899098962545395e-01 -2.9813849925994873e-01</leafValues></_>
        <_>
          <internalNodes>
            0 -1 212 1.7757944297045469e-03</internalNodes>
          <leafValues>
            7.3569998145103455e-02 -4.0329623222351074e-01</leafValues></_>
        <_>
          <internalNodes>
            0 -1 389 2.1892074437346309e-04</internalNodes>
          <leafValues>
            -1.9235192239284515e-01 1.8235236406326294e-01</leafValues></_>
        <_>
          <internalNodes>
            0 -1 78 -1.4828432351350784e-02</internalNodes>
          <leafValues>
            -8.1442838907241821e-01 3.7136025726795197e-02</leafValues></_>
        <_>
          <internalNodes>
            0 -1 331 5.6939927162602544e-05</internalNodes>
          <leafValues>
            1.6683246195316315e-01 -1.8196600675582886e-01</leafValues></_>
        <_>
          <internalNodes>
            0 -1 296 2.6216278783977032e-03</internalNodes>
          <leafValues>
            -1.1298794299364090e-01 3.0008053779602051e-01</leafValues></_>
        <_>
          <internalNodes>
            0 -1 375 -9.7309775810572319e-06</internalNodes>
          <leafValues>
            2.4421443045139313e-01 -1.3409402966499329e-01</leafValues></_>
        <_>
          <internalNodes>
            0 -1 632 -4.7006364911794662e-04</internalNodes>
          <leafValues>
            -2.7939453721046448e-01 1.0897727310657501e-01</leafValues></_>
        <_>
          <internalNodes>
            0 -1 627 -4.3699098750948906e-04</internalNodes>
          <leafValues>
            -3.3952358365058899e-01 8.5349746048450470e-02</leafValues></_>
        <_>
          <internalNodes>
            0 -1 469 -4.4858418405056000e-03</internalNodes>
          <leafValues>
            5.5761379003524780e-01 -5.2318781614303589e-02</leafValues></_>
        <_>
          <internalNodes>
            0 -1 259 2.7698793564923108e-04</internalNodes>
          <leafValues>
            -5.8984391391277313e-02 4.7048610448837280e-01</leafValues></_>
        <_>
          <internalNodes>
            0 -1 426 -3.3445587177993730e-05</internalNodes>
          <leafValues>
            -3.1611534953117371e-01 1.0438029468059540e-01</leafValues></_>
        <_>
          <internalNodes>
            0 -1 59 -7.8537053195759654e-04</internalNodes>
          <leafValues>
            -3.6466273665428162e-01 8.8646754622459412e-02</leafValues></_>
        <_>
          <internalNodes>
            0 -1 146 7.2010786971077323e-04</internalNodes>
          <leafValues>
            -9.6201010048389435e-02 3.6098459362983704e-01</leafValues></_>
        <_>
          <internalNodes>
            0 -1 405 4.3110926526424009e-06</internalNodes>
          <leafValues>
            -1.4345434308052063e-01 2.2332860529422760e-01</leafValues></_>
        <_>
          <internalNodes>
            0 -1 231 -5.6989174336194992e-03</internalNodes>
          <leafValues>
            2.5090751051902771e-01 -1.1817543953657150e-01</leafValues></_>
        <_>
          <internalNodes>
            0 -1 23 4.6677922364324331e-04</internalNodes>
          <leafValues>
            -1.4919680356979370e-01 2.0591582357883453e-01</leafValues></_>
        <_>
          <internalNodes>
            0 -1 219 5.7973958551883698e-02</internalNodes>
          <leafValues>
            -5.2442375570535660e-02 6.0805273056030273e-01</leafValues></_>
        <_>
          <internalNodes>
            0 -1 280 1.6238894313573837e-03</internalNodes>
          <leafValues>
            -9.0023584663867950e-02 4.0328130125999451e-01</leafValues></_>
        <_>
          <internalNodes>
            0 -1 621 4.5867805602028966e-04</internalNodes>
          <leafValues>
            -1.1300338804721832e-01 2.8216564655303955e-01</leafValues></_>
        <_>
          <internalNodes>
            0 -1 529 5.2269351726863533e-05</internalNodes>
          <leafValues>
            1.2717254459857941e-01 -2.5598302483558655e-01</leafValues></_>
        <_>
          <internalNodes>
            0 -1 22 8.2390248775482178e-02</internalNodes>
          <leafValues>
            5.3617224097251892e-02 -6.0729533433914185e-01</leafValues></_></weakClassifiers></_>
    <!-- stage 16 -->
    <_>
      <maxWeakCount>48</maxWeakCount>
      <stageThreshold>-8.8386511802673340e-01</stageThreshold>
      <weakClassifiers>
        <_>
          <internalNodes>
            0 -1 185 3.4847159404307604e-03</internalNodes>
          <leafValues>
            -3.5501354932785034e-01 3.5809260606765747e-01</leafValues></_>
        <_>
          <internalNodes>
            0 -1 402 4.2450122535228729e-02</internalNodes>
          <leafValues>
            -1.0979998111724854e-01 4.4214451313018799e-01</leafValues></_>
        <_>
          <internalNodes>
            0 -1 267 9.1652795672416687e-02</internalNodes>
          <leafValues>
            -5.7610340416431427e-02 7.2852933406829834e-01</leafValues></_>
        <_>
          <internalNodes>
            0 -1 220 -1.1585750617086887e-02</internalNodes>
          <leafValues>
            3.3884504437446594e-01 -1.9225244224071503e-01</leafValues></_>
        <_>
          <internalNodes>
            0 -1 332 6.0990415513515472e-02</internalNodes>
          <leafValues>
            -1.0056052356958389e-01 3.5451483726501465e-01</leafValues></_>
        <_>
          <internalNodes>
            0 -1 290 6.7629036493599415e-05</internalNodes>
          <leafValues>
            1.5166938304901123e-01 -2.9707923531532288e-01</leafValues></_>
        <_>
          <internalNodes>
            0 -1 272 1.1308619286864996e-03</internalNodes>
          <leafValues>
            5.2274279296398163e-02 -5.8722883462905884e-01</leafValues></_>
        <_>
          <internalNodes>
            0 -1 31 1.1863585561513901e-02</internalNodes>
          <leafValues>
            -2.7003920078277588e-01 1.3384884595870972e-01</leafValues></_>
        <_>
          <internalNodes>
            0 -1 587 -3.0719072674401104e-04</internalNodes>
          <leafValues>
            -3.6505076289176941e-01 8.5997305810451508e-02</leafValues></_>
        <_>
          <internalNodes>
            0 -1 162 -8.1087369471788406e-03</internalNodes>
          <leafValues>
            5.0335156917572021e-01 -6.4930036664009094e-02</leafValues></_>
        <_>
          <internalNodes>
            0 -1 210 4.0454167174175382e-04</internalNodes>
          <leafValues>
            -1.3274127244949341e-01 2.5062009692192078e-01</leafValues></_>
        <_>
          <internalNodes>
            0 -1 144 3.1665730057284236e-04</internalNodes>
          <leafValues>
            -1.4882272481918335e-01 2.2308334708213806e-01</leafValues></_>
        <_>
          <internalNodes>
            0 -1 358 2.5269301841035485e-04</internalNodes>
          <leafValues>
            -2.3636232316493988e-01 1.4817674458026886e-01</leafValues></_>
        <_>
          <internalNodes>
            0 -1 297 5.7867604482453316e-05</internalNodes>
          <leafValues>
            1.5418079495429993e-01 -2.2274003922939301e-01</leafValues></_>
        <_>
          <internalNodes>
            0 -1 535 4.1399129258934408e-05</internalNodes>
          <leafValues>
            8.3134442567825317e-02 -3.9570975303649902e-01</leafValues></_>
        <_>
          <internalNodes>
            0 -1 76 3.3047557808458805e-03</internalNodes>
          <leafValues>
            5.7345397770404816e-02 -4.6780368685722351e-01</leafValues></_>
        <_>
          <internalNodes>
            0 -1 183 -6.5427820663899183e-04</internalNodes>
          <leafValues>
            6.6060400009155273e-01 -4.9635633826255798e-02</leafValues></_>
        <_>
          <internalNodes>
            0 -1 66 4.5554595999419689e-03</internalNodes>
          <leafValues>
            5.4271463304758072e-02 -6.6076868772506714e-01</leafValues></_>
        <_>
          <internalNodes>
            0 -1 471 -5.6248879991471767e-04</internalNodes>
          <leafValues>
            2.3264469206333160e-01 -1.3347202539443970e-01</leafValues></_>
        <_>
          <internalNodes>
            0 -1 225 -7.1624713018536568e-04</internalNodes>
          <leafValues>
            6.9298100471496582e-01 -4.0465682744979858e-02</leafValues></_>
        <_>
          <internalNodes>
            0 -1 483 2.0536892407108098e-05</internalNodes>
          <leafValues>
            1.1242970824241638e-01 -3.1856474280357361e-01</leafValues></_>
        <_>
          <internalNodes>
            0 -1 571 2.3097284138202667e-03</internalNodes>
          <leafValues>
            -8.4055133163928986e-02 3.7094542384147644e-01</leafValues></_>
        <_>
          <internalNodes>
            0 -1 638 2.3383749648928642e-03</internalNodes>
          <leafValues>
            4.0257509797811508e-02 -7.1446239948272705e-01</leafValues></_>
        <_>
          <internalNodes>
            0 -1 538 1.0594017803668976e-03</internalNodes>
          <leafValues>
            -1.1682640016078949e-01 2.7961364388465881e-01</leafValues></_>
        <_>
          <internalNodes>
            0 -1 543 -1.7144657671451569e-02</internalNodes>
          <leafValues>
            5.2056294679641724e-01 -6.0241941362619400e-02</leafValues></_>
        <_>
          <internalNodes>
            0 -1 224 -5.3695553106081206e-06</internalNodes>
          <leafValues>
            2.0862288773059845e-01 -1.4730121195316315e-01</leafValues></_>
        <_>
          <internalNodes>
            0 -1 68 1.0364018380641937e-02</internalNodes>
          <leafValues>
            -8.5362285375595093e-02 3.6769145727157593e-01</leafValues></_>
        <_>
          <internalNodes>
            0 -1 465 -5.9456877352204174e-05</internalNodes>
          <leafValues>
            -4.4628912210464478e-01 7.3460437357425690e-02</leafValues></_>
        <_>
          <internalNodes>
            0 -1 94 8.4413103759288788e-03</internalNodes>
          <leafValues>
            5.8510039001703262e-02 -5.2503478527069092e-01</leafValues></_>
        <_>
          <internalNodes>
            0 -1 328 -4.9490914534544572e-05</internalNodes>
          <leafValues>
            -2.8514474630355835e-01 1.0619460791349411e-01</leafValues></_>
        <_>
          <internalNodes>
            0 -1 333 2.0564279984682798e-03</internalNodes>
          <leafValues>
            -7.9939804971218109e-02 3.7975054979324341e-01</leafValues></_>
        <_>
          <internalNodes>
            0 -1 566 4.4658975675702095e-03</internalNodes>
          <leafValues>
            4.6760015189647675e-02 -7.6721459627151489e-01</leafValues></_>
        <_>
          <internalNodes>
            0 -1 241 3.7513955030590296e-03</internalNodes>
          <leafValues>
            4.5407865196466446e-02 -5.7949006557464600e-01</leafValues></_>
        <_>
          <internalNodes>
            0 -1 412 -1.2832525499106850e-05</internalNodes>
          <leafValues>
            2.1897426247596741e-01 -1.3728961348533630e-01</leafValues></_>
        <_>
          <internalNodes>
            0 -1 102 -1.8851875793188810e-03</internalNodes>
          <leafValues>
            2.0329405367374420e-01 -1.4035265147686005e-01</leafValues></_>
        <_>
          <internalNodes>
            0 -1 608 2.4445656890748069e-05</internalNodes>
          <leafValues>
            -1.4858357608318329e-01 1.9342990219593048e-01</leafValues></_>
        <_>
          <internalNodes>
            0 -1 51 1.1738010216504335e-03</internalNodes>
          <leafValues>
            -9.7009867429733276e-02 2.7840390801429749e-01</leafValues></_>
        <_>
          <internalNodes>
            0 -1 40 -2.2862320765852928e-03</internalNodes>
          <leafValues>
            -3.7474954128265381e-01 7.9917982220649719e-02</leafValues></_>
        <_>
          <internalNodes>
            0 -1 593 1.9330084323883057e-03</internalNodes>
          <leafValues>
            -1.1127451062202454e-01 2.8322532773017883e-01</leafValues></_>
        <_>
          <internalNodes>
            0 -1 322 4.2079370468854904e-03</internalNodes>
          <leafValues>
            8.4807537496089935e-02 -3.7803676724433899e-01</leafValues></_>
        <_>
          <internalNodes>
            0 -1 549 -3.9432516132364981e-06</internalNodes>
          <leafValues>
            1.7811137437820435e-01 -1.6947051882743835e-01</leafValues></_>
        <_>
          <internalNodes>
            0 -1 452 4.3296888470649719e-03</internalNodes>
          <leafValues>
            -1.5540559589862823e-01 2.2132441401481628e-01</leafValues></_>
        <_>
          <internalNodes>
            0 -1 140 -8.6257280781865120e-04</internalNodes>
          <leafValues>
            3.2203170657157898e-01 -9.7752466797828674e-02</leafValues></_>
        <_>
          <internalNodes>
            0 -1 604 -7.1036565350368619e-04</internalNodes>
          <leafValues>
            -3.5772475600242615e-01 9.2106387019157410e-02</leafValues></_>
        <_>
          <internalNodes>
            0 -1 134 -4.6287389704957604e-04</internalNodes>
          <leafValues>
            1.8267785012722015e-01 -1.6969396173954010e-01</leafValues></_>
        <_>
          <internalNodes>
            0 -1 97 -3.8863733410835266e-02</internalNodes>
          <leafValues>
            -7.5798749923706055e-01 4.4195182621479034e-02</leafValues></_>
        <_>
          <internalNodes>
            0 -1 300 -5.5109355598688126e-03</internalNodes>
          <leafValues>
            -6.7384499311447144e-01 3.3409327268600464e-02</leafValues></_>
        <_>
          <internalNodes>
            0 -1 53 -7.3125787079334259e-02</internalNodes>
          <leafValues>
            -7.1974289417266846e-01 3.7269763648509979e-02</leafValues></_></weakClassifiers></_>
    <!-- stage 17 -->
    <_>
      <maxWeakCount>47</maxWeakCount>
      <stageThreshold>-7.3668056726455688e-01</stageThreshold>
      <weakClassifiers>
        <_>
          <internalNodes>
            0 -1 67 3.1322550028562546e-02</internalNodes>
          <leafValues>
            1.0091742873191833e-01 5.3005462884902954e-01</leafValues></_>
        <_>
          <internalNodes>
            0 -1 116 6.7515261471271515e-03</internalNodes>
          <leafValues>
            -6.7865207791328430e-02 5.0965720415115356e-01</leafValues></_>
        <_>
          <internalNodes>
            0 -1 117 -7.9503271263092756e-04</internalNodes>
          <leafValues>
            1.9967508316040039e-01 -1.9919471442699432e-01</leafValues></_>
        <_>
          <internalNodes>
            0 -1 341 1.4800637960433960e-02</internalNodes>
          <leafValues>
            -9.0186499059200287e-02 3.9534240961074829e-01</leafValues></_>
        <_>
          <internalNodes>
            0 -1 558 -8.3932629786431789e-04</internalNodes>
          <leafValues>
            2.5984302163124084e-01 -1.7742770910263062e-01</leafValues></_>
        <_>
          <internalNodes>
            0 -1 84 -3.2038781791925430e-03</internalNodes>
          <leafValues>
            -5.4631972312927246e-01 6.6292844712734222e-02</leafValues></_>
        <_>
          <internalNodes>
            0 -1 553 -3.3993434044532478e-05</internalNodes>
          <leafValues>
            -2.7167001366615295e-01 1.3037486374378204e-01</leafValues></_>
        <_>
          <internalNodes>
            0 -1 158 8.3150260616093874e-04</internalNodes>
          <leafValues>
            -2.2563487291336060e-01 1.5778000652790070e-01</leafValues></_>
        <_>
          <internalNodes>
            0 -1 406 -4.6054097765590996e-05</internalNodes>
          <leafValues>
            -4.3064579367637634e-01 9.1273337602615356e-02</leafValues></_>
        <_>
          <internalNodes>
            0 -1 432 2.2711588826496154e-05</internalNodes>
          <leafValues>
            1.1362895369529724e-01 -2.6066291332244873e-01</leafValues></_>
        <_>
          <internalNodes>
            0 -1 478 2.0694812701549381e-04</internalNodes>
          <leafValues>
            -1.2037994712591171e-01 3.0013203620910645e-01</leafValues></_>
        <_>
          <internalNodes>
            0 -1 298 -2.6154296938329935e-03</internalNodes>
          <leafValues>
            4.9230825901031494e-01 -5.6816205382347107e-02</leafValues></_>
        <_>
          <internalNodes>
            0 -1 286 1.2771416222676635e-03</internalNodes>
          <leafValues>
            -4.9270160496234894e-02 5.9360104799270630e-01</leafValues></_>
        <_>
          <internalNodes>
            0 -1 113 -5.8672081679105759e-02</internalNodes>
          <leafValues>
            4.1470134258270264e-01 -6.2484256923198700e-02</leafValues></_>
        <_>
          <internalNodes>
            0 -1 290 -6.4380583353340626e-05</internalNodes>
          <leafValues>
            -3.2663491368293762e-01 1.0425847768783569e-01</leafValues></_>
        <_>
          <internalNodes>
            0 -1 533 4.0097432211041451e-03</internalNodes>
          <leafValues>
            5.0495024770498276e-02 -5.4602378606796265e-01</leafValues></_>
        <_>
          <internalNodes>
            0 -1 614 -9.4616618007421494e-03</internalNodes>
          <leafValues>
            2.9876500368118286e-01 -9.0998917818069458e-02</leafValues></_>
        <_>
          <internalNodes>
            0 -1 45 7.3891803622245789e-03</internalNodes>
          <leafValues>
            4.0957964956760406e-02 -6.8104290962219238e-01</leafValues></_>
        <_>
          <internalNodes>
            0 -1 39 2.8536692261695862e-03</internalNodes>
          <leafValues>
            -1.2431601434946060e-01 2.4845010042190552e-01</leafValues></_>
        <_>
          <internalNodes>
            0 -1 462 3.9464548230171204e-02</internalNodes>
          <leafValues>
            -1.0070353746414185e-01 3.2634571194648743e-01</leafValues></_>
        <_>
          <internalNodes>
            0 -1 159 2.3153719305992126e-01</internalNodes>
          <leafValues>
            5.5060967803001404e-02 -5.5318766832351685e-01</leafValues></_>
        <_>
          <internalNodes>
            0 -1 276 3.7475228309631348e-02</internalNodes>
          <leafValues>
            5.9030670672655106e-02 -5.2687096595764160e-01</leafValues></_>
        <_>
          <internalNodes>
